<?xml version="1.0"?>
<opencv_storage>
<opencv_ml_svm>
  <format>3</format>
  <svmType>C_SVC</svmType>
  <kernel>
    <type>LINEAR</type></kernel>
  <C>1.</C>
  <term_criteria><iterations>1500</iterations></term_criteria>
  <var_count>7</var_count>
  <class_count>3</class_count>
  <class_labels type_id="opencv-matrix">
    <rows>3</rows>
    <cols>1</cols>
    <dt>i</dt>
    <data>
      1 2 3</data></class_labels>
  <sv_total>3</sv_total>
  <support_vectors>
    <_>
      -2.64582843e-01 4.83981907e-01 -3.65213513e-01 -8.85436162e-02
      4.42435622e-01 5.00000000e-01 1.35249043e+00</_>
    <_>
      -1.07207576e-04 -2.92017285e-05 -1.32788875e-04 3.06395305e-05
      4.84610704e-04 2.46404833e-03 9.10878298e-04</_>
    <_>
      5.09203073e-06 -9.15509645e-06 8.50618392e-07 2.95022837e-05
      1.77635684e-15 0. -5.00000000e-01</_></support_vectors>
  <uncompressed_sv_total>242</uncompressed_sv_total>
  <uncompressed_support_vectors>
    <_>
      1.50000000e+00 0. 0. 5.00000000e-01 6.00000024e-01 5.00000000e-01
      5.00000000e-01</_>
    <_>
      1.50000000e+00 1. 3. 1. 6.00000024e-01 5.00000000e-01
      5.00000000e-01</_>
    <_>
      0. 0. 0. 5.00000000e-01 6.00000024e-01 5.00000000e-01
      5.00000000e-01</_>
    <_>
      4.50000000e+00 5.00000000e-01 3. 5.00000000e-01 6.00000024e-01
      5.00000000e-01 1.</_>
    <_>
      0. 0. 1.50000000e+00 1. 6.00000024e-01 5.00000000e-01
      5.00000000e-01</_>
    <_>
      7.50000000e+00 0. 0. 1. 6.00000024e-01 5.00000000e-01
      5.00000000e-01</_>
    <_>
      0. 0. 0. 5.00000000e-01 6.00000024e-01 5.00000000e-01
      5.00000000e-01</_>
    <_>
      0. 0. 0. 5.00000000e-01 6.00000024e-01 5.00000000e-01
      5.00000000e-01</_>
    <_>
      4.50000000e+00 0. 3. 1.50000000e+00 6.00000024e-01 5.00000000e-01
      5.00000000e-01</_>
    <_>
      0. 1.50000000e+00 3. 5.00000000e-01 6.00000024e-01 5.00000000e-01
      5.00000000e-01</_>
    <_>
      6. 5.00000000e-01 0. 1. 6.00000024e-01 5.00000000e-01
      5.00000000e-01</_>
    <_>
      4.50000000e+00 0. 4.50000000e+00 1. 6.00000024e-01 5.00000000e-01
      5.00000000e-01</_>
    <_>
      1.50000000e+00 0. 1.50000000e+00 1. 6.00000024e-01 5.00000000e-01
      5.00000000e-01</_>
    <_>
      1.50000000e+00 2. 3. 1. 6.00000024e-01 5.00000000e-01
      5.00000000e-01</_>
    <_>
      6. 1.50000000e+00 0. 1. 6.00000024e-01 5.00000000e-01
      5.00000000e-01</_>
    <_>
      4.50000000e+00 5.00000000e-01 3. 5.00000000e-01 6.00000024e-01
      5.00000000e-01 5.00000000e-01</_>
    <_>
      7.50000000e+00 1.50000000e+00 6. 1. 6.00000024e-01 1.
      5.00000000e-01</_>
    <_>
      4.50000000e+00 5.00000000e-01 4.50000000e+00 1. 6.00000024e-01
      5.00000000e-01 5.00000000e-01</_>
    <_>
      4.50000000e+00 5.00000000e-01 4.50000000e+00 5.00000000e-01
      6.00000024e-01 5.00000000e-01 5.00000000e-01</_>
    <_>
      4.50000000e+00 5.00000000e-01 3. 1.50000000e+00 6.00000024e-01
      5.00000000e-01 5.00000000e-01</_>
    <_>
      0. 0. 0. 1.50000000e+00 6.00000024e-01 5.00000000e-01
      5.00000000e-01</_>
    <_>
      6. 5.00000000e-01 0. 5.00000000e-01 6.00000024e-01 5.00000000e-01
      5.00000000e-01</_>
    <_>
      1.50000000e+00 0. 3. 1.50000000e+00 6.00000024e-01 5.00000000e-01
      5.00000000e-01</_>
    <_>
      4.50000000e+00 5.00000000e-01 3. 1. 6.00000024e-01 5.00000000e-01
      5.00000000e-01</_>
    <_>
      0. 0. 0. 5.00000000e-01 6.00000024e-01 5.00000000e-01
      5.00000000e-01</_>
    <_>
      6. 5.00000000e-01 7.50000000e+00 1. 6.00000024e-01 5.00000000e-01
      5.00000000e-01</_>
    <_>
      3. 0. 4.50000000e+00 1.50000000e+00 6.00000024e-01 5.00000000e-01
      5.00000000e-01</_>
    <_>
      3. 5.00000000e-01 3. 5.00000000e-01 6.00000024e-01 5.00000000e-01
      5.00000000e-01</_>
    <_>
      0. 0. 0. 5.00000000e-01 6.00000024e-01 5.00000000e-01
      5.00000000e-01</_>
    <_>
      4.50000000e+00 1. 4.50000000e+00 5.00000000e-01 6.00000024e-01
      5.00000000e-01 5.00000000e-01</_>
    <_>
      0. 0. 0. 5.00000000e-01 6.00000024e-01 5.00000000e-01
      5.00000000e-01</_>
    <_>
      4.50000000e+00 1.50000000e+00 4.50000000e+00 1. 6.00000024e-01
      5.00000000e-01 5.00000000e-01</_>
    <_>
      3. 1. 3. 5.00000000e-01 6.00000024e-01 5.00000000e-01
      5.00000000e-01</_>
    <_>
      3. 0. 1.50000000e+00 1. 6.00000024e-01 5.00000000e-01
      5.00000000e-01</_>
    <_>
      1.50000000e+00 0. 3. 5.00000000e-01 6.00000024e-01 5.00000000e-01
      5.00000000e-01</_>
    <_>
      0. 5.00000000e-01 3. 5.00000000e-01 6.00000024e-01 5.00000000e-01
      5.00000000e-01</_>
    <_>
      0. 0. 0. 1.50000000e+00 6.00000024e-01 5.00000000e-01
      5.00000000e-01</_>
    <_>
      1.50000000e+00 5.00000000e-01 3. 5.00000000e-01 6.00000024e-01
      5.00000000e-01 5.00000000e-01</_>
    <_>
      6. 5.00000000e-01 6. 5.00000000e-01 6.00000024e-01 5.00000000e-01
      5.00000000e-01</_>
    <_>
      3. 0. 3. 1.50000000e+00 6.00000024e-01 5.00000000e-01
      5.00000000e-01</_>
    <_>
      4.50000000e+00 5.00000000e-01 1.50000000e+00 5.00000000e-01
      6.00000024e-01 5.00000000e-01 5.00000000e-01</_>
    <_>
      0. 0. 3. 5.00000000e-01 6.00000024e-01 5.00000000e-01
      5.00000000e-01</_>
    <_>
      3. 0. 1.50000000e+00 5.00000000e-01 6.00000024e-01 5.00000000e-01
      5.00000000e-01</_>
    <_>
      4.50000000e+00 0. 1.50000000e+00 5.00000000e-01 6.00000024e-01
      5.00000000e-01 5.00000000e-01</_>
    <_>
      6. 1.50000000e+00 4.50000000e+00 1.50000000e+00 6.00000024e-01
      5.00000000e-01 5.00000000e-01</_>
    <_>
      0. 0. 3. 5.00000000e-01 6.00000024e-01 5.00000000e-01
      5.00000000e-01</_>
    <_>
      0. 0. 3. 5.00000000e-01 6.00000024e-01 5.00000000e-01
      5.00000000e-01</_>
    <_>
      4.50000000e+00 0. 3. 1. 6.00000024e-01 5.00000000e-01
      5.00000000e-01</_>
    <_>
      6. 1.50000000e+00 6. 1.50000000e+00 6.00000024e-01 5.00000000e-01
      5.00000000e-01</_>
    <_>
      1.50000000e+00 0. 1.50000000e+00 1. 6.00000024e-01 5.00000000e-01
      5.00000000e-01</_>
    <_>
      1.50000000e+00 5.00000000e-01 3. 5.00000000e-01 6.00000024e-01
      5.00000000e-01 5.00000000e-01</_>
    <_>
      3. 0. 3. 5.00000000e-01 6.00000024e-01 5.00000000e-01
      5.00000000e-01</_>
    <_>
      0. 1.50000000e+00 0. 5.00000000e-01 6.00000024e-01 5.00000000e-01
      5.00000000e-01</_>
    <_>
      0. 0. 0. 5.00000000e-01 6.00000024e-01 5.00000000e-01
      5.00000000e-01</_>
    <_>
      0. 1.50000000e+00 0. 1. 6.00000024e-01 5.00000000e-01
      5.00000000e-01</_>
    <_>
      1.50000000e+00 5.00000000e-01 4.50000000e+00 1.50000000e+00
      6.00000024e-01 5.00000000e-01 5.00000000e-01</_>
    <_>
      4.50000000e+00 0. 4.50000000e+00 1. 6.00000024e-01 5.00000000e-01
      5.00000000e-01</_>
    <_>
      7.50000000e+00 2.50000000e+00 0. 1.50000000e+00 6.00000024e-01
      5.00000000e-01 5.00000000e-01</_>
    <_>
      0. 0. 1.50000000e+00 5.00000000e-01 6.00000024e-01 5.00000000e-01
      5.00000000e-01</_>
    <_>
      0. 0. 3. 1. 6.00000024e-01 1. 5.00000000e-01</_>
    <_>
      1.50000000e+00 0. 1.50000000e+00 1. 6.00000024e-01 5.00000000e-01
      5.00000000e-01</_>
    <_>
      3. 1. 3. 5.00000000e-01 6.00000024e-01 5.00000000e-01
      5.00000000e-01</_>
    <_>
      6. 5.00000000e-01 3. 5.00000000e-01 6.00000024e-01 5.00000000e-01
      5.00000000e-01</_>
    <_>
      3. 5.00000000e-01 1.50000000e+00 1. 6.00000024e-01 5.00000000e-01
      5.00000000e-01</_>
    <_>
      0. 0. 3. 5.00000000e-01 1.20000005e+00 5.00000000e-01
      5.00000000e-01</_>
    <_>
      0. 1. 3. 5.00000000e-01 6.00000024e-01 5.00000000e-01
      5.00000000e-01</_>
    <_>
      0. 0. 0. 5.00000000e-01 6.00000024e-01 5.00000000e-01
      5.00000000e-01</_>
    <_>
      0. 5.00000000e-01 3. 5.00000000e-01 6.00000024e-01 5.00000000e-01
      5.00000000e-01</_>
    <_>
      3. 0. 0. 5.00000000e-01 6.00000024e-01 5.00000000e-01
      5.00000000e-01</_>
    <_>
      3. 5.00000000e-01 1.50000000e+00 1. 6.00000024e-01 5.00000000e-01
      5.00000000e-01</_>
    <_>
      4.50000000e+00 1. 3. 1.50000000e+00 6.00000024e-01 5.00000000e-01
      5.00000000e-01</_>
    <_>
      3. 5.00000000e-01 3. 5.00000000e-01 6.00000024e-01 5.00000000e-01
      5.00000000e-01</_>
    <_>
      6. 5.00000000e-01 4.50000000e+00 5.00000000e-01 1.20000005e+00 1.
      5.00000000e-01</_>
    <_>
      1.50000000e+00 5.00000000e-01 3. 1. 6.00000024e-01 5.00000000e-01
      5.00000000e-01</_>
    <_>
      6. 0. 3. 5.00000000e-01 6.00000024e-01 5.00000000e-01
      5.00000000e-01</_>
    <_>
      1.50000000e+00 0. 3. 5.00000000e-01 6.00000024e-01 5.00000000e-01
      5.00000000e-01</_>
    <_>
      0. 1.50000000e+00 0. 5.00000000e-01 6.00000024e-01 5.00000000e-01
      5.00000000e-01</_>
    <_>
      3. 1. 4.50000000e+00 5.00000000e-01 6.00000024e-01 5.00000000e-01
      5.00000000e-01</_>
    <_>
      4.50000000e+00 1. 4.50000000e+00 1. 6.00000024e-01 5.00000000e-01
      5.00000000e-01</_>
    <_>
      4.50000000e+00 5.00000000e-01 4.50000000e+00 5.00000000e-01
      6.00000024e-01 5.00000000e-01 5.00000000e-01</_>
    <_>
      4.50000000e+00 5.00000000e-01 3. 1. 6.00000024e-01 5.00000000e-01
      5.00000000e-01</_>
    <_>
      3. 0. 3. 5.00000000e-01 6.00000024e-01 5.00000000e-01
      5.00000000e-01</_>
    <_>
      0. 1. 3. 1. 6.00000024e-01 5.00000000e-01 5.00000000e-01</_>
    <_>
      0. 0. 4.50000000e+00 5.00000000e-01 6.00000024e-01 5.00000000e-01
      5.00000000e-01</_>
    <_>
      0. 0. 3. 5.00000000e-01 6.00000024e-01 5.00000000e-01
      5.00000000e-01</_>
    <_>
      3. 5.00000000e-01 3. 5.00000000e-01 6.00000024e-01 5.00000000e-01
      5.00000000e-01</_>
    <_>
      4.50000000e+00 5.00000000e-01 1.50000000e+00 1.50000000e+00
      6.00000024e-01 5.00000000e-01 5.00000000e-01</_>
    <_>
      3. 1.50000000e+00 3. 5.00000000e-01 6.00000024e-01 5.00000000e-01
      5.00000000e-01</_>
    <_>
      0. 0. 0. 5.00000000e-01 6.00000024e-01 5.00000000e-01
      5.00000000e-01</_>
    <_>
      4.50000000e+00 5.00000000e-01 1.50000000e+00 1. 6.00000024e-01
      5.00000000e-01 5.00000000e-01</_>
    <_>
      0. 1.50000000e+00 0. 5.00000000e-01 6.00000024e-01 5.00000000e-01
      5.00000000e-01</_>
    <_>
      1.50000000e+00 5.00000000e-01 3. 1. 6.00000024e-01 5.00000000e-01
      5.00000000e-01</_>
    <_>
      1.50000000e+00 5.00000000e-01 3. 1. 6.00000024e-01 5.00000000e-01
      5.00000000e-01</_>
    <_>
      6. 1. 6. 1. 6.00000024e-01 5.00000000e-01 5.00000000e-01</_>
    <_>
      1.50000000e+00 5.00000000e-01 3. 1.50000000e+00 6.00000024e-01
      5.00000000e-01 5.00000000e-01</_>
    <_>
      4.50000000e+00 0. 4.50000000e+00 5.00000000e-01 6.00000024e-01
      5.00000000e-01 1.50000000e+00</_>
    <_>
      1.50000000e+00 5.00000000e-01 3. 5.00000000e-01 6.00000024e-01
      5.00000000e-01 5.00000000e-01</_>
    <_>
      0. 5.00000000e-01 3. 1. 6.00000024e-01 5.00000000e-01
      5.00000000e-01</_>
    <_>
      1.50000000e+00 5.00000000e-01 4.50000000e+00 1. 6.00000024e-01
      5.00000000e-01 5.00000000e-01</_>
    <_>
      0. 0. 3. 5.00000000e-01 6.00000024e-01 5.00000000e-01
      5.00000000e-01</_>
    <_>
      3. 1.50000000e+00 4.50000000e+00 5.00000000e-01 6.00000024e-01
      5.00000000e-01 5.00000000e-01</_>
    <_>
      0. 0. 4.50000000e+00 1. 6.00000024e-01 5.00000000e-01
      5.00000000e-01</_>
    <_>
      4.50000000e+00 5.00000000e-01 4.50000000e+00 1.50000000e+00
      6.00000024e-01 5.00000000e-01 5.00000000e-01</_>
    <_>
      0. 1. 7.50000000e+00 5.00000000e-01 6.00000024e-01 5.00000000e-01
      5.00000000e-01</_>
    <_>
      1.50000000e+00 0. 3. 1.50000000e+00 6.00000024e-01 5.00000000e-01
      5.00000000e-01</_>
    <_>
      7.50000000e+00 2.50000000e+00 0. 5.00000000e-01 6.00000024e-01
      5.00000000e-01 5.00000000e-01</_>
    <_>
      0. 0. 3. 5.00000000e-01 6.00000024e-01 5.00000000e-01
      5.00000000e-01</_>
    <_>
      3. 5.00000000e-01 3. 5.00000000e-01 6.00000024e-01 5.00000000e-01
      5.00000000e-01</_>
    <_>
      3. 0. 3. 5.00000000e-01 6.00000024e-01 5.00000000e-01
      5.00000000e-01</_>
    <_>
      4.50000000e+00 5.00000000e-01 1.50000000e+00 1. 6.00000024e-01
      5.00000000e-01 5.00000000e-01</_>
    <_>
      3. 1.50000000e+00 4.50000000e+00 5.00000000e-01 6.00000024e-01
      5.00000000e-01 5.00000000e-01</_>
    <_>
      4.50000000e+00 0. 0. 1. 6.00000024e-01 5.00000000e-01
      5.00000000e-01</_>
    <_>
      1.50000000e+00 5.00000000e-01 3. 5.00000000e-01 6.00000024e-01
      5.00000000e-01 5.00000000e-01</_>
    <_>
      3. 5.00000000e-01 3. 5.00000000e-01 6.00000024e-01 5.00000000e-01
      5.00000000e-01</_>
    <_>
      6. 1. 3. 5.00000000e-01 6.00000024e-01 5.00000000e-01
      5.00000000e-01</_>
    <_>
      1.50000000e+00 0. 3. 1. 6.00000024e-01 5.00000000e-01
      5.00000000e-01</_>
    <_>
      4.50000000e+00 5.00000000e-01 4.50000000e+00 1. 6.00000024e-01
      5.00000000e-01 5.00000000e-01</_>
    <_>
      3. 5.00000000e-01 3. 5.00000000e-01 6.00000024e-01 5.00000000e-01
      5.00000000e-01</_>
    <_>
      1.50000000e+00 5.00000000e-01 3. 5.00000000e-01 6.00000024e-01
      5.00000000e-01 5.00000000e-01</_>
    <_>
      3. 0. 4.50000000e+00 5.00000000e-01 6.00000024e-01 5.00000000e-01
      5.00000000e-01</_>
    <_>
      4.50000000e+00 0. 3. 5.00000000e-01 6.00000024e-01 5.00000000e-01
      5.00000000e-01</_>
    <_>
      3. 5.00000000e-01 4.50000000e+00 5.00000000e-01 6.00000024e-01
      5.00000000e-01 5.00000000e-01</_>
    <_>
      4.50000000e+00 1. 6. 1. 6.00000024e-01 5.00000000e-01
      5.00000000e-01</_>
    <_>
      3. 5.00000000e-01 4.50000000e+00 5.00000000e-01 6.00000024e-01
      5.00000000e-01 5.00000000e-01</_>
    <_>
      3. 5.00000000e-01 3. 5.00000000e-01 6.00000024e-01 5.00000000e-01
      5.00000000e-01</_>
    <_>
      3. 0. 4.50000000e+00 1. 6.00000024e-01 5.00000000e-01
      5.00000000e-01</_>
    <_>
      6. 0. 1.50000000e+00 5.00000000e-01 6.00000024e-01 5.00000000e-01
      5.00000000e-01</_>
    <_>
      3. 5.00000000e-01 4.50000000e+00 1. 6.00000024e-01 5.00000000e-01
      5.00000000e-01</_>
    <_>
      4.50000000e+00 0. 3. 5.00000000e-01 6.00000024e-01 5.00000000e-01
      5.00000000e-01</_>
    <_>
      4.50000000e+00 0. 0. 5.00000000e-01 6.00000024e-01 5.00000000e-01
      5.00000000e-01</_>
    <_>
      6. 5.00000000e-01 1.50000000e+00 1. 6.00000024e-01 5.00000000e-01
      5.00000000e-01</_>
    <_>
      3. 5.00000000e-01 1.50000000e+00 1.50000000e+00 6.00000024e-01
      5.00000000e-01 5.00000000e-01</_>
    <_>
      0. 0. 0. 1. 6.00000024e-01 5.00000000e-01 5.00000000e-01</_>
    <_>
      0. 0. 7.50000000e+00 5.00000000e-01 6.00000024e-01 5.00000000e-01
      5.00000000e-01</_>
    <_>
      4.50000000e+00 1. 3. 1. 6.00000024e-01 5.00000000e-01
      5.00000000e-01</_>
    <_>
      6. 0. 3. 5.00000000e-01 6.00000024e-01 5.00000000e-01
      5.00000000e-01</_>
    <_>
      4.50000000e+00 5.00000000e-01 4.50000000e+00 1. 6.00000024e-01
      5.00000000e-01 5.00000000e-01</_>
    <_>
      3. 5.00000000e-01 1.50000000e+00 1.50000000e+00 6.00000024e-01
      5.00000000e-01 5.00000000e-01</_>
    <_>
      0. 0. 0. 1. 6.00000024e-01 5.00000000e-01 5.00000000e-01</_>
    <_>
      4.50000000e+00 0. 3. 5.00000000e-01 6.00000024e-01 5.00000000e-01
      5.00000000e-01</_>
    <_>
      3. 5.00000000e-01 1.50000000e+00 1. 6.00000024e-01 5.00000000e-01
      5.00000000e-01</_>
    <_>
      1.50000000e+00 5.00000000e-01 4.50000000e+00 5.00000000e-01
      6.00000024e-01 5.00000000e-01 5.00000000e-01</_>
    <_>
      3. 0. 1.50000000e+00 1. 6.00000024e-01 5.00000000e-01
      5.00000000e-01</_>
    <_>
      1.50000000e+00 5.00000000e-01 3. 5.00000000e-01 6.00000024e-01
      5.00000000e-01 5.00000000e-01</_>
    <_>
      3. 1. 3. 1. 6.00000024e-01 5.00000000e-01 5.00000000e-01</_>
    <_>
      1.50000000e+00 0. 0. 5.00000000e-01 6.00000024e-01 5.00000000e-01
      5.00000000e-01</_>
    <_>
      3. 5.00000000e-01 3. 5.00000000e-01 6.00000024e-01 5.00000000e-01
      5.00000000e-01</_>
    <_>
      6. 1.50000000e+00 4.50000000e+00 1.50000000e+00 6.00000024e-01
      5.00000000e-01 5.00000000e-01</_>
    <_>
      1.50000000e+00 0. 3. 5.00000000e-01 6.00000024e-01 5.00000000e-01
      5.00000000e-01</_>
    <_>
      4.50000000e+00 1. 1.50000000e+00 1.50000000e+00 6.00000024e-01
      5.00000000e-01 5.00000000e-01</_>
    <_>
      3. 0. 3. 5.00000000e-01 6.00000024e-01 5.00000000e-01
      5.00000000e-01</_>
    <_>
      1.50000000e+00 0. 1.50000000e+00 5.00000000e-01 6.00000024e-01
      5.00000000e-01 5.00000000e-01</_>
    <_>
      0. 0. 4.50000000e+00 5.00000000e-01 6.00000024e-01 5.00000000e-01
      5.00000000e-01</_>
    <_>
      1.50000000e+00 0. 3. 5.00000000e-01 6.00000024e-01 5.00000000e-01
      5.00000000e-01</_>
    <_>
      4.50000000e+00 0. 3. 5.00000000e-01 6.00000024e-01 5.00000000e-01
      5.00000000e-01</_>
    <_>
      1.50000000e+00 0. 4.50000000e+00 5.00000000e-01 6.00000024e-01
      5.00000000e-01 5.00000000e-01</_>
    <_>
      0. 5.00000000e-01 3. 1. 6.00000024e-01 5.00000000e-01
      5.00000000e-01</_>
    <_>
      3. 5.00000000e-01 3. 5.00000000e-01 6.00000024e-01 5.00000000e-01
      5.00000000e-01</_>
    <_>
      4.50000000e+00 1. 6. 5.00000000e-01 6.00000024e-01 5.00000000e-01
      5.00000000e-01</_>
    <_>
      1.50000000e+00 5.00000000e-01 3. 5.00000000e-01 1.20000005e+00
      5.00000000e-01 5.00000000e-01</_>
    <_>
      6. 5.00000000e-01 6. 5.00000000e-01 6.00000024e-01 5.00000000e-01
      5.00000000e-01</_>
    <_>
      7.50000000e+00 2.50000000e+00 4.50000000e+00 1. 6.00000024e-01
      5.00000000e-01 5.00000000e-01</_>
    <_>
      3. 1. 1.50000000e+00 1.50000000e+00 6.00000024e-01 5.00000000e-01
      5.00000000e-01</_>
    <_>
      3. 0. 1.50000000e+00 5.00000000e-01 6.00000024e-01 5.00000000e-01
      5.00000000e-01</_>
    <_>
      4.50000000e+00 5.00000000e-01 3. 1. 6.00000024e-01 5.00000000e-01
      5.00000000e-01</_>
    <_>
      3. 5.00000000e-01 3. 1.50000000e+00 6.00000024e-01 5.00000000e-01
      5.00000000e-01</_>
    <_>
      3. 5.00000000e-01 3. 1.50000000e+00 6.00000024e-01 5.00000000e-01
      5.00000000e-01</_>
    <_>
      1.50000000e+00 0. 1.50000000e+00 5.00000000e-01 6.00000024e-01
      5.00000000e-01 5.00000000e-01</_>
    <_>
      6. 5.00000000e-01 4.50000000e+00 5.00000000e-01 6.00000024e-01
      5.00000000e-01 5.00000000e-01</_>
    <_>
      1.50000000e+00 5.00000000e-01 3. 1. 6.00000024e-01 5.00000000e-01
      5.00000000e-01</_>
    <_>
      0. 0. 4.50000000e+00 1.50000000e+00 6.00000024e-01 5.00000000e-01
      5.00000000e-01</_>
    <_>
      6. 0. 4.50000000e+00 1.50000000e+00 6.00000024e-01 5.00000000e-01
      5.00000000e-01</_>
    <_>
      1.50000000e+00 0. 6. 1. 6.00000024e-01 5.00000000e-01
      5.00000000e-01</_>
    <_>
      3. 1. 1.50000000e+00 5.00000000e-01 6.00000024e-01 5.00000000e-01
      5.00000000e-01</_>
    <_>
      0. 0. 4.50000000e+00 1. 6.00000024e-01 5.00000000e-01
      5.00000000e-01</_>
    <_>
      3. 0. 3. 5.00000000e-01 6.00000024e-01 5.00000000e-01
      5.00000000e-01</_>
    <_>
      3. 1. 3. 5.00000000e-01 6.00000024e-01 5.00000000e-01
      5.00000000e-01</_>
    <_>
      4.50000000e+00 1.50000000e+00 1.50000000e+00 1. 6.00000024e-01
      5.00000000e-01 5.00000000e-01</_>
    <_>
      4.50000000e+00 1.50000000e+00 3. 1.50000000e+00 6.00000024e-01
      5.00000000e-01 5.00000000e-01</_>
    <_>
      6. 0. 1.50000000e+00 5.00000000e-01 6.00000024e-01 5.00000000e-01
      5.00000000e-01</_>
    <_>
      4.50000000e+00 1. 4.50000000e+00 5.00000000e-01 6.00000024e-01
      5.00000000e-01 5.00000000e-01</_>
    <_>
      4.50000000e+00 1. 4.50000000e+00 5.00000000e-01 6.00000024e-01
      5.00000000e-01 5.00000000e-01</_>
    <_>
      7.50000000e+00 2. 7.50000000e+00 5.00000000e-01 6.00000024e-01
      5.00000000e-01 5.00000000e-01</_>
    <_>
      1.50000000e+00 1. 1.50000000e+00 1. 6.00000024e-01 5.00000000e-01
      5.00000000e-01</_>
    <_>
      4.50000000e+00 1.50000000e+00 6. 1. 6.00000024e-01 5.00000000e-01
      5.00000000e-01</_>
    <_>
      6. 1. 4.50000000e+00 1.50000000e+00 6.00000024e-01 5.00000000e-01
      5.00000000e-01</_>
    <_>
      0. 5.00000000e-01 0. 1.50000000e+00 6.00000024e-01 5.00000000e-01
      5.00000000e-01</_>
    <_>
      4.50000000e+00 1. 7.50000000e+00 1.50000000e+00 6.00000024e-01
      5.00000000e-01 5.00000000e-01</_>
    <_>
      4.50000000e+00 5.00000000e-01 4.50000000e+00 1. 6.00000024e-01
      5.00000000e-01 5.00000000e-01</_>
    <_>
      6. 5.00000000e-01 6. 1.50000000e+00 6.00000024e-01 5.00000000e-01
      5.00000000e-01</_>
    <_>
      4.50000000e+00 5.00000000e-01 3. 5.00000000e-01 6.00000024e-01 1.
      5.00000000e-01</_>
    <_>
      0. 0. 3. 5.00000000e-01 6.00000024e-01 5.00000000e-01
      5.00000000e-01</_>
    <_>
      4.50000000e+00 0. 3. 5.00000000e-01 6.00000024e-01 1.
      5.00000000e-01</_>
    <_>
      3. 0. 4.50000000e+00 1.50000000e+00 6.00000024e-01 5.00000000e-01
      5.00000000e-01</_>
    <_>
      6. 1.50000000e+00 7.50000000e+00 1. 6.00000024e-01 5.00000000e-01
      5.00000000e-01</_>
    <_>
      0. 5.00000000e-01 7.50000000e+00 1.50000000e+00 6.00000024e-01
      5.00000000e-01 5.00000000e-01</_>
    <_>
      4.50000000e+00 0. 3. 5.00000000e-01 6.00000024e-01 5.00000000e-01
      5.00000000e-01</_>
    <_>
      3. 5.00000000e-01 3. 1. 6.00000024e-01 5.00000000e-01
      5.00000000e-01</_>
    <_>
      3. 5.00000000e-01 4.50000000e+00 5.00000000e-01 6.00000024e-01
      5.00000000e-01 5.00000000e-01</_>
    <_>
      0. 1. 3. 5.00000000e-01 6.00000024e-01 5.00000000e-01
      5.00000000e-01</_>
    <_>
      3. 0. 0. 5.00000000e-01 6.00000024e-01 5.00000000e-01
      5.00000000e-01</_>
    <_>
      3. 5.00000000e-01 1.50000000e+00 5.00000000e-01 6.00000024e-01
      5.00000000e-01 5.00000000e-01</_>
    <_>
      3. 5.00000000e-01 4.50000000e+00 1. 6.00000024e-01 5.00000000e-01
      5.00000000e-01</_>
    <_>
      0. 1. 0. 5.00000000e-01 6.00000024e-01 5.00000000e-01
      5.00000000e-01</_>
    <_>
      3. 0. 3. 5.00000000e-01 6.00000024e-01 5.00000000e-01
      5.00000000e-01</_>
    <_>
      1.50000000e+00 0. 7.50000000e+00 5.00000000e-01 6.00000024e-01
      5.00000000e-01 5.00000000e-01</_>
    <_>
      0. 5.00000000e-01 1.50000000e+00 5.00000000e-01 6.00000024e-01
      5.00000000e-01 5.00000000e-01</_>
    <_>
      3. 0. 3. 1. 6.00000024e-01 5.00000000e-01 5.00000000e-01</_>
    <_>
      4.50000000e+00 1. 3. 1. 6.00000024e-01 5.00000000e-01
      5.00000000e-01</_>
    <_>
      1.50000000e+00 1. 1.50000000e+00 1. 6.00000024e-01 5.00000000e-01
      5.00000000e-01</_>
    <_>
      1.50000000e+00 5.00000000e-01 6. 1. 6.00000024e-01 5.00000000e-01
      5.00000000e-01</_>
    <_>
      0. 0. 0. 1. 6.00000024e-01 5.00000000e-01 5.00000000e-01</_>
    <_>
      1.50000000e+00 5.00000000e-01 1.50000000e+00 1. 6.00000024e-01
      5.00000000e-01 5.00000000e-01</_>
    <_>
      1.50000000e+00 0. 0. 5.00000000e-01 6.00000024e-01 5.00000000e-01
      5.00000000e-01</_>
    <_>
      7.50000000e+00 0. 3. 5.00000000e-01 6.00000024e-01 5.00000000e-01
      5.00000000e-01</_>
    <_>
      0. 0. 6. 5.00000000e-01 6.00000024e-01 5.00000000e-01
      5.00000000e-01</_>
    <_>
      3. 0. 3. 1. 6.00000024e-01 5.00000000e-01 5.00000000e-01</_>
    <_>
      0. 0. 4.50000000e+00 1.50000000e+00 6.00000024e-01 5.00000000e-01
      5.00000000e-01</_>
    <_>
      7.50000000e+00 1. 4.50000000e+00 1. 6.00000024e-01 5.00000000e-01
      5.00000000e-01</_>
    <_>
      3. 1. 1.50000000e+00 5.00000000e-01 6.00000024e-01 5.00000000e-01
      5.00000000e-01</_>
    <_>
      1.50000000e+00 1. 1.50000000e+00 1. 6.00000024e-01 5.00000000e-01
      5.00000000e-01</_>
    <_>
      0. 5.00000000e-01 1.50000000e+00 5.00000000e-01 6.00000024e-01
      5.00000000e-01 5.00000000e-01</_>
    <_>
      1.50000000e+00 5.00000000e-01 1.50000000e+00 1. 6.00000024e-01
      5.00000000e-01 5.00000000e-01</_>
    <_>
      0. 0. 0. 5.00000000e-01 6.00000024e-01 5.00000000e-01
      5.00000000e-01</_>
    <_>
      0. 0. 4.50000000e+00 5.00000000e-01 6.00000024e-01 5.00000000e-01
      5.00000000e-01</_>
    <_>
      0. 5.00000000e-01 0. 5.00000000e-01 6.00000024e-01 5.00000000e-01
      5.00000000e-01</_>
    <_>
      0. 0. 0. 1. 6.00000024e-01 5.00000000e-01 5.00000000e-01</_>
    <_>
      0. 0. 0. 5.00000000e-01 6.00000024e-01 5.00000000e-01
      5.00000000e-01</_>
    <_>
      4.50000000e+00 0. 4.50000000e+00 1. 6.00000024e-01 5.00000000e-01
      5.00000000e-01</_>
    <_>
      3. 5.00000000e-01 6. 5.00000000e-01 6.00000024e-01 5.00000000e-01
      5.00000000e-01</_>
    <_>
      3. 1. 6. 5.00000000e-01 6.00000024e-01 5.00000000e-01
      5.00000000e-01</_>
    <_>
      0. 5.00000000e-01 0. 5.00000000e-01 6.00000024e-01 5.00000000e-01
      5.00000000e-01</_>
    <_>
      1.50000000e+00 0. 3. 5.00000000e-01 6.00000024e-01 5.00000000e-01
      5.00000000e-01</_>
    <_>
      0. 0. 0. 5.00000000e-01 6.00000024e-01 5.00000000e-01
      5.00000000e-01</_>
    <_>
      3. 0. 1.50000000e+00 1. 6.00000024e-01 5.00000000e-01
      5.00000000e-01</_>
    <_>
      3. 5.00000000e-01 1.50000000e+00 5.00000000e-01 6.00000024e-01
      5.00000000e-01 5.00000000e-01</_>
    <_>
      1.50000000e+00 5.00000000e-01 1.50000000e+00 1. 6.00000024e-01
      5.00000000e-01 1.</_>
    <_>
      0. 0. 0. 5.00000000e-01 6.00000024e-01 5.00000000e-01
      5.00000000e-01</_>
    <_>
      0. 5.00000000e-01 0. 5.00000000e-01 6.00000024e-01 5.00000000e-01
      5.00000000e-01</_>
    <_>
      0. 0. 0. 5.00000000e-01 6.00000024e-01 5.00000000e-01
      5.00000000e-01</_>
    <_>
      0. 1.50000000e+00 0. 5.00000000e-01 6.00000024e-01 5.00000000e-01
      5.00000000e-01</_>
    <_>
      3. 5.00000000e-01 3. 1. 6.00000024e-01 5.00000000e-01
      5.00000000e-01</_></uncompressed_support_vectors>
  <decision_functions>
    <_>
      <sv_count>1</sv_count>
      <rho>-6.9390967122102665e-01</rho>
      <alpha>
        1.</alpha>
      <index>
        0</index></_>
    <_>
      <sv_count>1</sv_count>
      <rho>-9.9845326891874586e-01</rho>
      <alpha>
        1.</alpha>
      <index>
        1</index></_>
    <_>
      <sv_count>1</sv_count>
      <rho>-1.2499728088518862e+00</rho>
      <alpha>
        1.</alpha>
      <index>
        2</index></_></decision_functions></opencv_ml_svm>
</opencv_storage>
